digraph Tree {
node [shape=box] ;
0 [label="X[0] <= 19.5\nentropy = 0.604\nsamples = 61\nvalue = [9, 52]"] ;
1 [label="X[1] <= 19.5\nentropy = 0.74\nsamples = 43\nvalue = [9, 34]"] ;
0 -> 1 [labeldistance=2.5, labelangle=45, headlabel="True"] ;
2 [label="X[1] <= 12.5\nentropy = 0.932\nsamples = 23\nvalue = [8, 15]"] ;
1 -> 2 ;
3 [label="X[0] <= 15.5\nentropy = 0.65\nsamples = 18\nvalue = [3, 15]"] ;
2 -> 3 ;
4 [label="X[1] <= 6.5\nentropy = 0.337\nsamples = 16\nvalue = [1, 15]"] ;
3 -> 4 ;
5 [label="entropy = 0.0\nsamples = 13\nvalue = [0, 13]"] ;
4 -> 5 ;
6 [label="X[0] <= 3.0\nentropy = 0.918\nsamples = 3\nvalue = [1, 2]"] ;
4 -> 6 ;
7 [label="entropy = 0.0\nsamples = 2\nvalue = [0, 2]"] ;
6 -> 7 ;
8 [label="entropy = 0.0\nsamples = 1\nvalue = [1, 0]"] ;
6 -> 8 ;
9 [label="entropy = 0.0\nsamples = 2\nvalue = [2, 0]"] ;
3 -> 9 ;
10 [label="entropy = 0.0\nsamples = 5\nvalue = [5, 0]"] ;
2 -> 10 ;
11 [label="X[0] <= 14.0\nentropy = 0.286\nsamples = 20\nvalue = [1, 19]"] ;
1 -> 11 ;
12 [label="entropy = 0.0\nsamples = 18\nvalue = [0, 18]"] ;
11 -> 12 ;
13 [label="X[0] <= 16.5\nentropy = 1.0\nsamples = 2\nvalue = [1, 1]"] ;
11 -> 13 ;
14 [label="entropy = 0.0\nsamples = 1\nvalue = [1, 0]"] ;
13 -> 14 ;
15 [label="entropy = 0.0\nsamples = 1\nvalue = [0, 1]"] ;
13 -> 15 ;
16 [label="entropy = 0.0\nsamples = 18\nvalue = [0, 18]"] ;
0 -> 16 [labeldistance=2.5, labelangle=-45, headlabel="False"] ;
}